-2.08780695257148000 -3.32102289365475000 -0.11124593909866600 0.80360785640209000 -4.29246237500195000 -1.78364268810366000 4.53029508811998000 -3.00963464902574000 -3.51151847345141000 -5.26146774809533000 5.04027508004687000 1.31701020124998000 8.43206452344822000 -3.46180600616299000 -6.77864691942988000 -3.54164992937411000 -4.55580434374710000 4.31127429575642000 -5.66065193696643000 -2.74614646965218000 0.79859927780958000 8.93390233246357000 -6.41111745582376000 5.46559012953266000 3.46679591708341000 -3.13957075054699000 -3.88962025359640000 3.61849348012240000 7.79429607420988000 1.01993318471939000 9.95409732043578000 3.30493139987522000 0.28672549714701700 6.28374164914268000 -4.26712022195106000 -3.42891844304729000 -1.51148130339547000 -2.55678924402497000 -7.51996672299683000 -1.04953961147117000 7.97039682487604000 -4.15155976554627000 -6.62992421876494000 -6.08101388525055000 4.92220013900753000 2.42505262998200000 -10.19765688766920000 -6.21899459221569000 11.35194819361950000 -7.16148617979051000 7.99122088851704000 9.91236482907096000 -8.18083737206745000 -5.63197526856911000 4.14421465300353000 5.14865940855394000 -8.92708734559259000 3.12941559172985000 6.30813189037352000 8.86556969009453000 -9.15433603469564000 -9.90263886203046000 -2.40929513842503000 5.00641633033142000 -3.48430762279510000 -9.32599445804540000 3.55446441391769000 -8.29919998283241000 9.26156074507424000 4.93278706190772000 7.15123754445529000 7.05522319463008000 1.51102629195707000 5.24986824236561000 -2.19915374069254000 -6.65106687143598000 5.24601115545413000 8.91205211116236000 7.70830019519790000 -9.61983492564275000 -3.11207441409785000 -8.77698223926801000 3.25031199530631000 4.61511760045270000 2.16534986584348000 8.63447085759593000 1.01144520964157000 2.32750315297023000 -7.57870388525334000 1.03125484991768000 -4.35748468989839000 4.93194107029284000 0.09504653989012400 -6.21531930227905000 -2.29880547959353000 8.23942759431606000 9.28672388326241000 1.13783185491730000 10.04830620674730000 5.04791668262118000 8.19123937672502000 10.18788338174860000 -7.31868691128793000 -8.18265313214268000 -3.59097490981016000 -9.47759313100820000 -2.47574803238094000 -4.36780275034014000 4.35904311141296000 0.40703764197367600 9.60280524138966000 -6.94218782618342000 4.04525480085419000 5.14270456857003000 2.38529099785251000 8.23893098303334000 -3.20524846998757000 2.05182641487544000 -8.93315206594782000 -5.37087207260643000 -1.35623273267487000 -8.72862739057704000 8.38018883181907000 -2.33503726481752000 0.71438053381460100 -7.70364946683170000 -2.91030207372702000 0.75581471897900700 -0.35538764369274200 2.23491327443753000 -4.72559608658681000 -3.49717153865826000 9.79843301442473000 -7.57555846509107000 -6.27405687876357000 -2.66516059045963000 -9.39688499206018000 2.06920841964278000 -1.09098001829764000 3.47563361697136000 1.27216663105939000 -3.71720440978085000 6.89329939579209000 2.79200658955118000 2.45189788833990000 -7.31374584419555000 9.53881480598834000 4.29092130522061000 -0.94047668941994400 -1.90137381545201000 1.41520005630635000 -3.13346388340136000 -1.57022752440805000 4.93927096085016000 -2.57430918272972000 6.48596097958065000 -9.70567641661818000 4.55990257591327000 1.43374379715584000 -6.57653354571314000 4.95520400904943000 8.69143844605106000 6.86070055705788000 -7.94395375519358000 -4.34096471198690000 2.87825004735716000 -7.15576908453438000 2.26108015528851000 2.45515092649764000 -5.37090573058456000 7.07676516009823000 3.61133774356987000 -7.43771062284020000 -2.47355213908889000 2.70103275415857000 -7.17689252187974000 -5.16387982617116000 -4.53267397358660000 5.04063368671971000 -2.80889055106401000 -7.16570723023825000 2.66469706206879000 8.39646041515576000 9.17682561127191000 -9.41909744883175000 7.38055744138731000 7.92664397425547000 -5.98361822129606000 4.98650995469286000 -3.18865494636100000 -3.53844102729089000 -3.28845836130746000 -9.83171897166539000 -3.42062143921793000 -8.64170047354312000 4.26722269112176000 -1.63749613562442000 5.60235455972669000 -3.41774459380579000 7.96837166250792000 9.66554445589114000 -2.93488005252456000 -9.87568484353180000 -5.51781277598828000 0.70404781792835400 7.95890439670462000 -7.06989559779524000 -10.50351386035250000 -6.48754962704379000 -4.63787372580812000 3.05696098962485000 5.03224234755625000 9.28306719079863000 -5.75428393105554000 -8.45624680270651000 -9.13221088307040000 -9.67718976548727000 8.11868715626406000 -7.71685150948281000 -2.15053155871860000 5.86619398396477000 9.43423137629728000 7.81740329669521000 -2.43945097059285000 5.40997786092766000 3.01660199580368000 1.42751971592404000 5.01745562762174000 -4.00639268278518000 4.29132337150153000 3.54536406727712000 -2.63735736961946000 5.14199949336544000 6.33041355518684000 -4.51815200568641000 2.72652936914178000 0.16879028112940200 0.78796029665518600 -7.01443718368643000 -8.36070014547567000 2.46095729717324000 5.15455891494092000 -12.21942765956700000 -1.98118287063330000 4.40434786068721000 1.13286285732411000 -4.20185846664818000 5.62012493128958000 -4.90295147408452000 9.25431167312184000 4.17455084442632000 -0.19402008779081400 2.86776129975573000 10.93859091981800000 -5.83143839161210000 -3.86517705640245000