-1.27051072141723000 0.81925229509405100 -4.85933982458103000 7.41816980767360000 -3.56369008470784000 9.86307103632608000 -7.64097657083949000 -1.68432368443395000 0.43874994271563000 -9.95257233249376000 7.07010607039753000 4.61505629637380000 7.24588375152831000 -6.63457754309367000 -10.05522626124880000 -3.47938326823234000 -0.80072821172176800 -1.15475682983466000 -2.98315483132148000 -4.48404558611244000 -0.22935145716679400 -4.38500913554759000 -5.53623249764701000 5.31470620601331000 2.05776746923380000 -1.38574807082448000 -2.55113678458413000 5.90657961021161000 1.98114147724613000 -2.62117188602703000 -7.19099831407213000 4.82916374015810000 3.43301518515389000 4.63998613805426000 1.15661662963386000 -5.27282482025492000 9.07487958737282000 8.10088546392886000 -5.87451587373982000 -2.78327366078672000 -6.14110965602354000 1.36537028096444000 -4.07720343247240000 -9.14107938335765000 -1.64968397464842000 -8.63916029730695000 8.33674267116357000 5.89251616468225000 3.39519557524363000 -5.58796740711294000 3.81391615500820000 -7.05324861107787000 -2.39980552143370000 -1.70767282839621000 7.32706152154670000 -3.41167043938883000 -3.21851437582923000 0.09934094693340760 -4.25603557408509000 8.43764222967221000 1.50605965767260000 -3.86196976617709000 5.37054151471934000 -7.39243693204984000 8.35469875952316000 9.81579054264250000 -9.57362181822285000 -7.41100538897538000 0.61255684402342900 5.35762709494866000 -1.85725330312241000 0.23129534661558300 -5.01621345387184000 9.92585992238502000 -8.68964883308947000 6.88177983833053000 9.36301571139954000 -6.94761355344009000 -4.76903069700314000 0.01234215856576130 0.55353802678318900 3.08701970621870000 2.55705727827773000 -0.69605770577292700 5.15677541665477000 -7.99719278751243000 -1.47012706414504000 -1.83778733225314000 9.10558514707590000 -3.94680792290694000 8.87712713795911000 0.30880830055478100 2.34547176988997000 -3.72002577271345000 5.71480878719064000 7.26812405081367000 6.83176013546967000 -4.45636844579361000 -5.02094052057503000 -0.04699259384371680 -7.27831567498538000 9.81371544648620000 -7.25174033334489000 -2.61504004093967000 5.03506122806950000 -7.74280117707474000 6.02972388180721000 -3.65717896913632000 -6.04016057621703000 8.93048940014592000 -2.47263536500904000 -5.49822604095783000 -7.95956400423722000 4.80777316910957000 0.12448772165619200 7.74277814484608000 5.20394791253174000 -3.89333654430088000 -2.75694918678876000 4.87403952850929000 1.27954488583914000 1.71713673612998000 -7.26759022697199000 -5.66505993815687000 6.85192134530688000 7.81348879618860000 8.00189269621401000 10.23844133970150000 -5.65012799425238000 -4.67615499063166000 -10.01289082986910000 5.63501230460545000 10.17422294165370000 6.14272323379611000 -0.73549979300989000 2.22668766505386000 1.22962958239079000 -4.99484244530093000 4.92513315340778000 4.10598219216496000 -3.93947386501453000 -7.93267955226009000 -5.75129935415848000 -9.56436225159085000 -9.29090904852587000 6.31995644551411000 -3.75608328669772000 7.16158743453162000 4.57530670280476000 7.46616792972606000 -6.47583082978831000 0.62679827920293400 6.28592626585276000 -1.51428406535616000 7.56542458988365000 -0.73897115618777100 3.10105260104994000 7.42041309437666000 -0.03150091444069250 6.50986201199171000 -6.10154574503903000 6.16652543764453000 -8.13973443761972000 6.72319194488203000 7.78162482941661000 -0.68214816653940800 -7.50429672990895000 -3.45453085805674000 -3.90160922647020000 6.03478979403191000 -4.28246126710893000 -2.04715576379946000 0.52529723906190000 3.18264564865592000 -1.35593909334668000 -0.34280193539591300 -3.04756219390330000 -7.96029292561512000 -6.31793358669482000 -9.55063467200779000 1.65085665606519000 -10.09618834816480000 -6.38794905262780000 -4.11386704790288000 -8.38446332890575000 -0.78543601509113700 9.25310669246228000 0.42679371943148200 7.53313756575930000 8.79380917495134000 7.51846997079806000 4.28546170297378000 4.66652287275729000 7.80138465758642000 1.59983735744531000 0.15015594468789000 9.46555272310285000 -2.70051409914024000 -6.91278582939903000 0.13503038157086000 3.44808348185549000 9.17854677046067000 -0.11693562090377000 9.07639867217327000 2.19307301801584000 5.09230056363153000 -10.22424744853840000 -7.27702320920643000 2.70327584399090000 -4.43250661592027000 -7.45771498513952000 1.86984412531374000 3.02982811691330000 -0.54351248713991700 -4.34779178699867000 -7.41032846493935000 3.56019292188130000 6.44371242660690000 4.84307735723930000 -1.49042245621480000 0.17579245627078800 1.67208965918095000 -1.39436496132263000 -2.52500907318973000 3.03434704531586000 1.21745855134648000 -0.12900571641134400 1.54074037091158000 -9.93977960078820000 3.95206325039439000 -0.96633873627360700 8.45979962508562000 4.70973658111062000 3.38817811767251000 -4.42606709144881000 -0.14063702345480200 -1.73347948518752000 -9.32514099068979000 -2.13278344047211000 -4.39999447147147000 -2.93867009128990000 3.57395453033332000 -2.39775651165692000 -2.35614825510909000 6.96823838160282000 -3.11940972852231000 -9.55626437790983000 -4.64844424186441000 1.97036404743649000 -1.52161774626089000 6.86082559611161000 -7.41615780457479000 1.28042791469398000 5.83658657382026000 -9.26274723434843000 -4.95559909676917000