-2.66503806268549000 -10.12474284828540000 -1.12034689273902000 0.43471930914633100 -9.29971667982857000 6.59546134290242000 0.89035544610993000 -1.63639820920412000 -5.71305576184701000 -3.03785257414621000 -3.66105543193305000 -6.79786884370846000 1.26788913606645000 -5.04842503709067000 5.83981676718146000 -7.80862485878064000 0.87828963094647600 3.23994957289814000 8.43980985356628000 0.99005489899742200 5.14669615981729000 -0.26731015490693500 8.04230442373296000 -1.15616323778143000 -7.96604665629762000 -8.64589599952627000 3.95812848301682000 -4.78585268639998000 4.50596323821579000 -5.24308467582818000 9.38415858816352000 5.85143782673088000 5.65575857161720000 2.15989129625600000 -6.27332745033787000 3.14071504836434000 -7.45048611567374000 -3.97185349979304000 3.79646035420334000 0.57718849768036800 0.19407732609504900 -5.59309177650580000 7.70216213675817000 3.34601571708291000 6.09051767986758000 -0.99516636567832000 -3.40010309139061000 -2.59274024030474000 9.15827299158401000 -3.32573289738379000 11.22385390291750000 -2.71952252523818000 -5.18874804812175000 -5.47493670995687000 8.04186919628907000 -7.59438940415355000 -3.70653428438270000 -1.29134555355751000 0.32464770191753500 -6.90923997895514000 -5.89297101753293000 -3.62062904503246000 4.59850087906818000 -5.87064309085337000 -1.40475773702456000 -3.97728196703750000 -6.14211428181527000 9.03680344139334000 8.61437393673998000 -7.36691633112671000 -7.27520282961444000 -1.11403955180172000 -7.49585139241284000 -0.50372794024041300 6.96867573940444000 0.35284151812969300 2.76329173948710000 -5.55326119904150000 3.85804152336920000 4.65806995128211000 5.94194026263394000 -1.84383986468254000 1.68811139657119000 0.40401595918299100 -5.20234173287341000 4.95566881498265000 3.20467894295832000 6.29417751442669000 8.41021577881727000 -5.04403519180740000 -0.85786333408138800 3.50016962609607000 5.88416232138375000 2.58394993075357000 -1.96629287690320000 -4.19568762686415000 2.81654597519698000 4.66411944876159000 -2.89412988866553000 0.45804869367615600 -5.96210302834200000 3.15496034034973000 -5.04520930890636000 -0.42785390962772600 -7.31757976371743000 1.58483504950224000 -4.70544253536833000 5.18135024428582000 -7.13678462552276000 -2.36642480020779000 1.99737039123905000 -6.61731153427069000 2.71746076537679000 6.03346952057532000 -0.51507884622395500 3.41402237886866000 6.05156043851493000 -7.04608450926626000 9.26754470168916000 4.49444769635224000 4.40197601945936000 0.75358043594923100 -9.98678085817554000 4.85117633382083000 4.85762140296344000 -2.77666678460471000 2.87701929526238000 -0.29683702627592000 8.52196134967785000 2.73054580567001000 5.55675612057476000 6.81589772894293000 6.87530528966111000 -6.42360707814798000 1.92295544671213000 -3.25345576530975000 -6.47227587562791000 -6.64778829503667000 -2.43515827154165000 4.80782875924505000 0.13967345445067700 7.15093952224421000 2.09394435092462000 1.38567366144417000 4.85008453628151000 -2.13385172670485000 -7.94728933507394000 9.76566806173798000 -9.27103496420855000 4.27503351942547000 3.30836145319640000 -1.09069352914347000 5.61140205314437000 0.57137947962707100 4.34198719147289000 1.55753020316006000 -2.68565947660305000 -1.39715991956526000 3.96383523068917000 3.59258811867255000 7.08583444357241000 3.04202711153501000 4.58715144582978000 -1.61869041011666000 -0.71251428949053300 0.26834361263286000 -8.68949157873634000 -1.09220663424826000 -5.84858054833090000 9.47399787882361000 -2.91582273916982000 1.74415507627951000 5.85329756295883000 -7.21719304388549000 -4.77254726427411000 7.02883791638424000 7.84444201198530000 -0.30920203625113800 -8.26090099367340000 -1.39662176740856000 -1.66751359048663000 4.64441916911087000 -3.79777243526179000 -4.66527713736948000 -7.84305269247007000 -0.92051802436418500 -7.82341396968516000 0.20313758965922900 0.60439305270710300 -9.70509097616844000 9.66492744578196000 7.14352972994944000 0.23427407148492300 4.34164315999366000 8.19393970795652000 7.02789730991297000 -7.56700800583142000 -5.82178135340291000 -5.70246250099214000 -6.22434578097866000 -2.62075231441601000 3.99218327023647000 5.21696547716373000 -4.57707859114729000 0.17556426210090400 -7.02579904963569000 4.90307172299975000 2.25092122955797000 -6.75205485279971000 6.33294598342453000 4.17015357373250000 10.59795051452770000 -1.08501670510610000 -3.39786656709806000 -2.56214546655526000 -6.86697705686004000 -1.72442805995374000 2.65719998507180000 -1.59396050319367000 -7.25910384512823000 1.77894690527954000 2.51523124412057000 9.45718716536698000 -5.49477373261997000 -10.42818496278500000 0.02904829952971890 -9.02479967226168000 -7.63490880124047000 -3.79271651953294000 -2.65095998556883000 6.76767295321167000 5.59728417952918000 -4.50255758253692000 9.10840064192476000 -7.82836193970236000 4.47971799131503000 9.47311318356867000 -7.41038906912544000 5.24068522507856000 10.15788587579930000 3.82542083630451000 0.77128478162004600 -6.93538996806853000 2.43591713978340000 -2.68950394086332000 -8.82037827583145000 -0.66512420191231000 -5.76726047504003000 -3.28855498944288000 6.35770467120998000 -0.93576644301178700 -0.92224140724495000 4.80593792573561000 -8.39747798828874000 2.38022805317363000 3.11623153271095000